{
  "brand": "Lifers Telemetry Autoencoder v2",
  "version": 2,
  "n_features": 8,
  "features": [
    "cpu_pct",
    "ram_pct",
    "disk_pct",
    "net_kbps",
    "temp_c",
    "proc_count",
    "io_wait",
    "ctx_switches"
  ],
  "mean": [
    24.891700744628906,
    44.83945083618164,
    30.568031311035156,
    159.19232177734375,
    42.491676330566406,
    8.355718612670898,
    2.3641624450683594,
    5687.37939453125
  ],
  "std": [
    7.798868656158447,
    7.440821170806885,
    1.8319916725158691,
    85.4294662475586,
    3.9251625537872314,
    2.6559247970581055,
    1.140721321105957,
    2188.126220703125
  ],
  "threshold": 0.1128137617811942,
  "W1": [
    [
      0.27419896649125414,
      -0.03779126052773126,
      0.3198686987428285,
      0.9415232744193949,
      -0.10781631079397962,
      -0.07401889071780123,
      0.779659089708767,
      0.38169814425440196,
      -0.23705416910411983,
      0.40347876066395666,
      -0.24512111896468466,
      -0.2850917697462872,
      0.057565292389226454,
      -0.9312533068376628,
      -0.8212106981827667,
      -0.33265688522195924,
      -0.551619915074834,
      0.2608297103079146,
      -0.3527535936910143,
      -0.7034251302523152,
      0.802309380232534,
      -0.13569151484675912,
      0.11011770669600106,
      -0.7393831702375016,
      -0.21693234631025035,
      0.09805843752249618,
      -0.5929286960926275,
      0.2024619235032718,
      -0.32331114687253926,
      -0.1410698860858158,
      -0.3807462253477756,
      0.9340353732423571
    ],
    [
      0.05028225148837656,
      -0.4729569067531912,
      0.407560421978294,
      -0.45767530081295194,
      0.12621736344663345,
      -0.965537339662629,
      -0.690407638437202,
      0.10781538719954813,
      0.3915991834888917,
      0.25706560581526156,
      -0.06394942740435398,
      -0.11498111348672503,
      -0.7591433413001104,
      -0.3252534725761951,
      -0.20481613442178448,
      0.45252546331137294,
      0.14113629422954854,
      -0.7893487428616893,
      0.2604153356438299,
      -0.12760010514214554,
      -0.255005317409532,
      0.276366756549667,
      0.632665807679308,
      0.3331216987890833,
      -0.3695365911117329,
      -0.1257634901954591,
      0.11022951462503228,
      0.4998720985974745,
      -0.24779684514444922,
      -0.08454323529253391,
      -0.5994005508673221,
      -0.559785053356073
    ],
    [
      0.4535649441937828,
      0.7233357307773919,
      -0.11357315439889777,
      0.476241778476442,
      0.2032575410279134,
      -0.3293695785586487,
      0.031095450924480378,
      0.7427503416389933,
      0.006966249475930924,
      0.8317423079690982,
      -1.3028629046754914,
      0.5014806356693637,
      -0.06025029937514392,
      -0.11235998703574943,
      0.04533051381423507,
      -1.0614759219682255,
      -0.09238138045041872,
      0.22502618956263,
      0.7695143627194685,
      -0.1797610894627864,
      -0.31886036968009185,
      -0.3121177270408358,
      0.4938859252767599,
      0.13896988988392037,
      -0.23115873399058903,
      0.2797535896600523,
      -0.021998337207701397,
      0.4615743512206165,
      -0.3856457480167786,
      -0.14843079455527075,
      -0.2607441051056697,
      -0.694391247699423
    ],
    [
      0.19967693061716185,
      0.2709845499400175,
      -0.016780415075205685,
      0.022684404363305585,
      -0.6759672997588597,
      -0.21315521779825392,
      -0.2888622996356556,
      -0.3723097548693086,
      -0.049298064293322105,
      0.37574104771269523,
      0.9210730243214301,
      0.0911393250704333,
      0.07655077010569651,
      -3.093529066886707e-05,
      -0.9290119917822249,
      -0.08048746106368698,
      -0.010718101179497274,
      1.309459580352981,
      0.005309569122399394,
      0.13690875896991353,
      0.049989515873968514,
      -0.6292463026123091,
      0.643890987912094,
      0.235881453888891,
      0.44795337882551234,
      -0.4380580932112009,
      0.6436849547310242,
      -0.711504618353279,
      0.2760353472175836,
      1.0978733703694288,
      -0.5546218227314104,
      -0.24466561954159183
    ],
    [
      0.08417031081954846,
      -0.21565890841646237,
      -0.8146795311912004,
      0.08251833945289054,
      -0.5111220949968059,
      0.2868304775908245,
      -0.5145327025141441,
      0.7540995350682929,
      -0.35767320816199993,
      -0.022882063007617092,
      0.3898073795351126,
      -0.5308720836650757,
      -0.031199943905982987,
      0.6764390397667533,
      -0.7873754320424011,
      0.023347101349144077,
      0.15386195910701095,
      0.4428195239825751,
      -0.5246519806582078,
      -0.5850929779562746,
      0.2757477726215281,
      0.0978062131528172,
      0.22194429216061307,
      0.08127692493373628,
      -0.29905997550049873,
      0.16277152761905822,
      0.10590338775910556,
      -0.41988107399760055,
      0.8987179836521025,
      0.2242729748142033,
      -0.6612051909097765,
      0.3460304248644552
    ],
    [
      -0.4644989403277551,
      0.41715533938744687,
      0.514326370216044,
      -0.3900806292039986,
      0.4945192811125033,
      0.21700863425587236,
      0.3627902696459838,
      0.9148603005925224,
      -0.10128027949812532,
      -0.23629711177125126,
      -0.47117861225826324,
      -0.3137621390523573,
      -0.23483712040915142,
      0.1890410805489289,
      0.12247750054105438,
      0.34067541341057267,
      0.030623157282495754,
      0.7785402963509337,
      -0.05937774312289331,
      1.3645604965872498,
      0.39792345955420216,
      -0.46804212460591377,
      -0.4627397470315356,
      0.23562584827072838,
      -0.07708565497022864,
      0.36953349046683237,
      0.19461966317288562,
      -0.04212251028027213,
      -0.4460641779318085,
      -0.7696466592772835,
      -0.25709352048788886,
      0.44980684247454317
    ],
    [
      0.10904219995744689,
      -0.5265478419940888,
      0.06641040197873509,
      0.208571860667063,
      -0.42299622012048055,
      0.09290028301083993,
      -0.019100744346349275,
      -0.5736229131314465,
      0.18862219992508486,
      0.28703191688236174,
      0.5017990608354247,
      0.5577534234809612,
      -0.8409256476766717,
      -0.42685092745642417,
      0.27598507254398,
      0.20652575163859518,
      0.22607328568416699,
      1.9880094773678894,
      0.345011199165042,
      0.5726687222636684,
      0.5387632662903813,
      0.26887562674042753,
      -0.09552852234537981,
      0.32296891191280325,
      -0.3321222400920659,
      -0.1437549866364199,
      -0.28991118738636157,
      0.03961081988196819,
      1.1109949011141502,
      -0.897849187629314,
      0.2511092797041959,
      -0.7661208416616503
    ],
    [
      -0.19762998623595482,
      0.5820019347008539,
      -0.0005368797351257078,
      -0.41910362739508916,
      -0.33020003003324094,
      0.3455572730332962,
      -0.4766079447379643,
      0.10823771897135191,
      0.04615830972374192,
      -0.19648985282608533,
      1.0417007648461036,
      0.3538363566761682,
      -0.9703015260096789,
      0.12043535525138471,
      -0.30869176080111044,
      0.3599436574563967,
      -0.4103965549011798,
      0.021096377858112313,
      0.34242250279778946,
      0.4497276286360965,
      -0.5206266111388878,
      -0.2023985440204086,
      -0.16229020234188232,
      -0.39378113111979,
      0.9185554668096286,
      0.22098167066947352,
      -0.6727114726049888,
      0.46592824912896313,
      1.026514112450518,
      0.5205678056135088,
      -0.7889178020858534,
      -0.20930848012640094
    ]
  ],
  "b1": [
    0.07303446395810895,
    -0.029419479013312252,
    0.004597384980864749,
    0.04725985535861126,
    -0.02743225576048763,
    0.017293754139258596,
    0.08019414145021918,
    -0.039577556818363474,
    -0.015097027447558305,
    0.037424271562586084,
    -0.02356604879385952,
    0.02857917932233731,
    0.08393327785339576,
    -0.030997965326313784,
    -0.02348255563462907,
    0.0405943209665627,
    0.02844718851739795,
    0.08827685373173037,
    -0.0617882906398473,
    0.18365199982322233,
    -0.02672031786572604,
    0.05337162243226153,
    -0.01924041743392265,
    0.0027864194783435757,
    -0.04767248528314477,
    0.07114327182871194,
    -0.01442671107384261,
    0.03750211313742361,
    -0.052786535232715565,
    -0.010026453615364282,
    0.0706427445322752,
    -0.030918468481777133
  ],
  "W2": [
    [
      0.2747134073832236,
      -0.18100707416030576,
      0.16799365025001095,
      0.1705557685969351,
      -0.20608437779657318,
      -0.06480680544923922,
      -0.8735971189777189,
      -0.1780362263952868,
      0.039788236702050325,
      -0.20048601014123177,
      0.5017859147176817,
      -0.12369826308653109,
      -0.12831026710155252,
      -0.010981907801357856,
      0.2621648828621515,
      -0.39042952126615493
    ],
    [
      0.18820323130148298,
      0.012205437693979911,
      -0.27206839038363356,
      0.12512544543729243,
      0.18134807277746895,
      -0.179193541655591,
      -0.05107943443385318,
      -0.06038093428206792,
      -0.190802186353666,
      0.1524190003738311,
      0.34733494194986986,
      -0.4133127030311669,
      0.4690420025049258,
      -0.33934529276843567,
      -0.09739515319845818,
      0.093816781374069
    ],
    [
      0.033425200387589955,
      -0.10583261482927178,
      -0.07736174875735691,
      -0.19449309881327836,
      -0.2349405037576646,
      0.18082275466499648,
      0.060093735530388305,
      -0.02373937369253571,
      0.36438615825661125,
      -0.024203035496467653,
      0.27233449730098624,
      0.1684479429512594,
      -0.19521042371631986,
      -0.018033774860592787,
      0.12547268529519032,
      0.11537507560294243
    ],
    [
      -0.025847298124114418,
      -0.15664233585848386,
      0.20900122328439735,
      -0.1948554667745849,
      0.17249511112238078,
      -0.13081196123473524,
      -0.11087987461459191,
      0.23144703713399117,
      0.1841597520894934,
      0.190992352524731,
      0.26423908114807065,
      -0.19578572580539927,
      0.11368740231173682,
      -0.14200876508273508,
      0.050869935399384905,
      -0.07486435207181594
    ],
    [
      0.31652868241575866,
      0.3688741186039707,
      -0.11499994737660633,
      0.49125959259511803,
      -0.41326353610470956,
      -0.18357428094846415,
      0.23120782893765104,
      0.195498131789772,
      0.16849732503169543,
      0.11323032909200983,
      -0.02495686757359873,
      -0.3306378138523699,
      -0.016882752609788436,
      -0.23156111475974692,
      0.20642107987347696,
      -0.087512650276659
    ],
    [
      -0.13415215166259864,
      0.06782828207501827,
      0.10427942135783588,
      -0.17094179158575573,
      -0.20776516866555164,
      0.07607248202153832,
      0.020225849526145718,
      -0.15678040750051717,
      -0.035633950535657745,
      0.021672490619505425,
      -0.41668020809746387,
      -0.4032367350881877,
      -0.2239839454199017,
      -0.05936719485329861,
      0.035322318179945085,
      0.31298088738876867
    ],
    [
      0.32101921792664884,
      0.0570506930425593,
      -0.0630437462216885,
      -0.3553829556015718,
      0.10907233427884892,
      -0.09350442729320674,
      0.03525703036589913,
      -0.24609457666447496,
      0.2694683638952609,
      0.28602539020760076,
      -0.03848857206617333,
      -0.12443545811515147,
      0.16193722580334172,
      -0.15816782620735584,
      0.03407083204462591,
      -0.08635899702997399
    ],
    [
      0.03093537636769927,
      -0.003949264983120415,
      0.04142578627228652,
      0.07433360443352859,
      0.38466785420244937,
      0.20032699102364157,
      0.46642734553539783,
      -0.12239380852739318,
      0.2942697988191383,
      0.12120073718951412,
      0.5421845558334013,
      0.0060427104328629,
      -0.24147105485398299,
      -0.11854582125830385,
      -0.5866684359957413,
      -0.1677428826448809
    ],
    [
      -0.08192306220932564,
      0.17547274139001326,
      0.22913358437339357,
      0.4471104253484946,
      0.056335840329487206,
      -0.1362153625136552,
      -0.17406594712760182,
      0.12080764100335986,
      -0.12554823899771397,
      0.42157013818911127,
      0.35653190272225516,
      -0.0872117717518512,
      -0.3652218628149272,
      0.3233329271691396,
      -0.04512984962619903,
      0.29581701118113524
    ],
    [
      -0.39219525497994595,
      -0.08367030591198342,
      0.0565921524249456,
      -0.06105843918815861,
      -0.09205780854420582,
      0.11436629062740564,
      -0.3239947694506545,
      0.07231347896686675,
      -0.0007888173059229266,
      0.2105492964165523,
      0.25693733874800434,
      -0.025547240237221207,
      -0.4039181871453398,
      0.3468146944180426,
      -0.02698554507801465,
      -0.2151219779556508
    ],
    [
      0.16398166363765937,
      0.10731254011844725,
      0.21640209265910257,
      0.08448962692810427,
      0.5596435674307904,
      0.39997153166611127,
      -0.08587930401128117,
      0.27684503989681547,
      0.25789892501386336,
      0.35401655726062875,
      -0.1303482632907523,
      0.27697067423460675,
      0.22797189658319375,
      -0.33403456400280895,
      -0.30797444205379465,
      -0.5271133967503586
    ],
    [
      0.26245879793776294,
      -0.1564291700751294,
      0.4618855988069386,
      0.016343221928837897,
      0.28425841946534713,
      -0.3758052358196796,
      -0.41122952637351484,
      0.048182727889966075,
      0.0749533441724281,
      -0.1047713800691926,
      -0.43899158772916075,
      -0.12792114875236033,
      -0.23002994687570333,
      0.09883705839625805,
      0.08332218011658965,
      -0.25432698511017626
    ],
    [
      -0.10861446126542638,
      -0.2327023276039404,
      0.0337311380970221,
      0.21785155700061784,
      -0.10844562115949613,
      0.0877331117119466,
      -0.1909156338226256,
      -0.20654783586920356,
      0.11218017488446326,
      -0.29203708799458067,
      -0.15586112067357366,
      -0.1817007474555219,
      0.4452575548239847,
      -0.06345702001182699,
      -0.2015179796916483,
      -0.006809606913541077
    ],
    [
      0.12356821532707488,
      0.21151262705300505,
      0.21707434795986458,
      0.18771731242502784,
      -0.1161892259229025,
      -0.15507144332757364,
      -0.17344681057380662,
      -0.5948915619773176,
      -0.3466705544707498,
      0.3217472735221404,
      0.33719319732248015,
      -0.07926610572404365,
      0.07978774019517554,
      0.07233648002030621,
      0.7271183447823373,
      0.2351940804613328
    ],
    [
      0.10675182281045296,
      -0.05690710369067925,
      -0.32492466995030483,
      0.030963417600173543,
      -0.04491384799241895,
      -0.23123628765004092,
      -0.19720486224486491,
      -0.25728042095254694,
      0.4359454978240121,
      0.18738517671727287,
      -0.011259621692256775,
      0.3392013155209783,
      0.002140900333082527,
      -0.2720290888595149,
      0.3516546474932749,
      0.09701969271168258
    ],
    [
      -0.2940984014315145,
      0.2765997529494529,
      -0.30797263034242395,
      -0.32502361985848655,
      0.1992152651400324,
      0.4387022825343273,
      -0.36515645138027214,
      0.13026422739696347,
      0.13188905949038104,
      -0.11636642293753012,
      -0.021613796349747333,
      -0.09426539599104956,
      -0.032425359482191586,
      -0.2328962565284664,
      0.019188102087563465,
      -0.003254727228999682
    ],
    [
      -0.11016509598322764,
      0.10091614998053115,
      -0.07131680585777256,
      0.18508138439439115,
      0.22833396404148887,
      -0.3481475817364702,
      -0.0301136114249463,
      0.1387081838996989,
      -0.4146415733127084,
      0.1157374574909209,
      -0.1614604315023774,
      0.15493696506873667,
      -0.19933493124400295,
      -0.4586082591796162,
      -0.4369313603200025,
      -0.030544409184175385
    ],
    [
      0.0006469416991666363,
      -0.1919215002359261,
      0.1861505820351131,
      -0.40352710935853586,
      0.0135505337494768,
      -0.33995565329499966,
      -0.21075098440323217,
      0.055346107674056906,
      -0.13194166680770628,
      -0.04429083771623464,
      0.29002062657062583,
      -0.052534685057210664,
      0.17855391115114597,
      -0.3243700399696724,
      0.05950165846428647,
      0.33609646545854793
    ],
    [
      -0.16854739734720245,
      -0.3165542693873243,
      0.2729703707841382,
      -0.09190148245015545,
      0.06116548749867406,
      -0.18959313634621328,
      0.03789377760462333,
      0.1136369435201768,
      0.06811838691876868,
      0.022555723714494613,
      0.13333119784411243,
      -0.0352412223473664,
      -0.13530043886186374,
      -0.030676294443028745,
      0.04424934996475005,
      -0.12434645680650928
    ],
    [
      0.004692292240562733,
      0.47182866901349624,
      0.2309335371923598,
      -0.0938675294078321,
      0.3066808747663537,
      -0.13867533430520235,
      -0.5385769996473883,
      -0.213629772166392,
      -0.3073403323693449,
      -0.13187035761403768,
      0.01258295409017821,
      0.28278312300676295,
      0.06586887866013037,
      -0.09038597497701463,
      0.13766056284258568,
      -0.5694110975713756
    ],
    [
      0.05155605232586483,
      0.2876893646535105,
      -0.35872588004835787,
      0.09760902189216661,
      0.08561365238920988,
      -0.15336967111427902,
      0.10687627290291556,
      0.607963264530016,
      0.1339160472754982,
      0.10329744158429366,
      -0.10111712229201068,
      -0.16696400361121277,
      0.16124975311634568,
      -0.14516405328785675,
      -0.03067539035925213,
      -0.16008273122439615
    ],
    [
      -0.04635499769643394,
      -0.0501171939124655,
      0.29151230122775296,
      -0.1461893765473801,
      -0.011666729062793717,
      -0.03111034907770354,
      -0.183225408212643,
      -0.12173123516160081,
      0.4477917767454208,
      -0.2561895615256512,
      0.2332283475945975,
      0.3195057397881201,
      0.06505912509824338,
      0.34946916865498656,
      -0.21221777864123478,
      -0.347075345794748
    ],
    [
      -0.49814892290174945,
      0.5099199122825949,
      0.21003608855096947,
      -0.09690653105097209,
      0.09802890505343306,
      -0.3243079318906606,
      0.5530508774483148,
      0.08868822821860801,
      0.056560787900849695,
      0.31229337803285395,
      0.23346790360286554,
      0.41572694061127907,
      -0.22512914072181087,
      0.14518188024892129,
      0.364490772494822,
      0.30910800844529257
    ],
    [
      0.16440583249851434,
      0.04734814534937375,
      -0.08050342240979808,
      0.15014923616768303,
      0.026598234787649725,
      0.24099184642899354,
      -0.44851607196864574,
      0.35099949194527247,
      -0.040926493655510154,
      -0.009357996384103838,
      -0.24318210449694888,
      -0.2022429088676385,
      0.16993274846838954,
      -0.06647959559195958,
      -0.3544622481310194,
      -0.34107382441491507
    ],
    [
      -0.036959271240595226,
      0.33716650601624865,
      0.03167072025369832,
      -0.38549867766778284,
      0.2693869689062211,
      -0.052236386474424745,
      -0.6424463018565706,
      0.09828235514562064,
      0.09683490453474071,
      0.12786776356462048,
      0.3922762630122513,
      -0.060043834750464355,
      -0.08863209908883442,
      -0.21731825745233202,
      0.6143458399916399,
      -0.024367224567499342
    ],
    [
      0.13437588558614236,
      0.14928056351610078,
      0.10675745982921195,
      -0.0738355477753993,
      -0.10762609437288734,
      -0.18250293660103176,
      -0.10022649550799358,
      -0.020738254880140916,
      -0.12237246953656934,
      -0.044637734257321524,
      -0.16650040023139442,
      0.36977476825824684,
      -0.7069618614790287,
      0.32142970731310655,
      0.2316519664620895,
      -0.5653605771508913
    ],
    [
      -0.10555680885253133,
      0.08305624119212782,
      -0.23485054762748747,
      -0.17511418015152883,
      -0.18949945361353127,
      0.37664901910272197,
      0.1717318793289031,
      0.21924966979431548,
      0.21842876254736873,
      -0.2827048259226328,
      -0.14467302376738805,
      0.21831456815550504,
      -0.32092404441792455,
      0.17997378897318547,
      -0.09313887389051717,
      -0.15644013444566765
    ],
    [
      0.19432154365103668,
      0.13111724780356399,
      0.05917872925587189,
      0.2588857828295207,
      -0.36657857354091994,
      0.12148629686834508,
      0.1104662166927428,
      0.08386094220957066,
      0.22816422915698067,
      -0.5585801606488638,
      0.2366138190246152,
      0.12435118721982591,
      -0.14248292458958003,
      0.25200967524961876,
      -0.2387994681465624,
      -0.3684808238225292
    ],
    [
      -0.36081688376026516,
      0.24165217931302108,
      -0.2620470715918213,
      0.35151869431248967,
      -0.49206769127835703,
      0.3861586026196087,
      0.012142195614880029,
      0.006708268065669975,
      0.029754138857836405,
      0.12587489889341413,
      0.02364652195249273,
      0.3916498087652868,
      -0.0026048384091504747,
      -0.07621625660117473,
      -0.1426889381830513,
      -0.03587107297937435
    ],
    [
      -0.039437267277220155,
      -0.3923703896114196,
      -0.10876347898949455,
      0.17345233089784853,
      0.1861957400524013,
      -0.08283723197357482,
      -0.03907988458537896,
      0.034333692969602016,
      0.15086994640578094,
      -0.16665535535363066,
      0.0402551072651909,
      0.08854555631243398,
      0.037759938245022176,
      -0.39295057202866196,
      0.2286845353799762,
      0.06692816365207009
    ],
    [
      0.06297734905856356,
      0.30881712035614123,
      0.46854203225329516,
      0.2312756070310723,
      -0.06526163918669386,
      -0.22184580312595412,
      -0.187409117427059,
      -0.03927436302780418,
      0.2389013390674573,
      -0.2153703884649967,
      0.0425762916168352,
      -0.19893465432732627,
      -0.164244838069642,
      -0.43712732656049524,
      -0.2549738431504839,
      -0.38247758265485227
    ],
    [
      -0.05861876962356438,
      0.44163326437081213,
      -0.1688389617304926,
      0.5818507110638088,
      0.07202241098881632,
      -0.030397148620583195,
      -0.2904046334760394,
      0.13947927095453633,
      0.0890140839364165,
      -0.013459714658318763,
      0.5802002157984345,
      0.007941484424386953,
      0.21246459846091334,
      -0.27340716253207276,
      -0.047042924506583476,
      0.37985480558230067
    ]
  ],
  "b2": [
    0.015020828840059326,
    0.028662382163197622,
    0.052214287008256845,
    -0.03369687646435335,
    0.049766775334780224,
    -0.04366891815552234,
    -0.0655747756802109,
    -0.003226268578682508,
    0.12331174367299202,
    -0.027849211929719897,
    0.012663405632392408,
    0.06479644025375185,
    -0.04137400843077872,
    -0.0656976696113474,
    -0.035522024652176805,
    -0.051689731342434174
  ],
  "W3": [
    [
      -0.2185629632015994,
      0.6508332742363434,
      0.1813689481648839,
      0.0025413030196280648,
      0.22069289184608443,
      0.24810575608725516,
      0.01750502565179274,
      -0.4748988115667845
    ],
    [
      -0.42103418807287085,
      -0.15691779127991293,
      -0.013547216465249852,
      0.05950641417920478,
      0.047970497635403786,
      -0.6099256220269837,
      -0.15090624757587293,
      -0.06354333262329426
    ],
    [
      0.22084877784200566,
      0.35067628086123503,
      0.28872553379838817,
      0.22516097616975442,
      0.055992655855030854,
      -0.4246188678515968,
      0.20314625129512223,
      0.21092716116634164
    ],
    [
      0.07145526645846367,
      -0.3855053925805819,
      -0.3618559007516603,
      0.33119344613331775,
      0.09413840253351707,
      0.2021405015630566,
      -0.027472033784732796,
      0.08219534305095741
    ],
    [
      0.2505117014381191,
      -0.2635822047474416,
      -0.13921282153884734,
      -0.11958332471659179,
      -0.27768325648548847,
      -0.0369184901388798,
      0.03431889068169365,
      -0.030665332783916917
    ],
    [
      0.39255436059879173,
      -0.28411539864254454,
      -0.09383787882736426,
      -0.13776222267339133,
      0.4728307765609228,
      0.03802702674551142,
      0.35356658477149605,
      -0.4967969978010104
    ],
    [
      -0.0008494453569064062,
      0.3233736026403064,
      -0.046977678844797276,
      0.26420329096724515,
      -0.1764783569768416,
      0.4248159531157887,
      0.7584021498449376,
      -0.24105730558629235
    ],
    [
      -0.23683194576417133,
      0.39734633237810396,
      0.5879152217689542,
      -0.21252040318236684,
      -0.22412713840481402,
      -0.08347325129582134,
      -0.3849820675822629,
      -0.18472548300814381
    ],
    [
      -0.3788800713138491,
      -0.2022287091771388,
      0.017386584965322967,
      0.04606795452658371,
      0.64353597521827,
      -0.3208675234350744,
      0.3533281695638849,
      -0.0079407512269642
    ],
    [
      -0.08755524467469153,
      0.26628902450012093,
      -0.44736485327181974,
      0.12187971586168454,
      -0.026328234851758312,
      0.16302826586956992,
      0.08498757176241345,
      0.7974676257015723
    ],
    [
      -0.27446654998673176,
      -0.15850624875124716,
      -0.2618947658990382,
      -0.2122269625050606,
      -0.2647444875849578,
      0.3811069329517589,
      0.4835706176582676,
      -0.20746105961327047
    ],
    [
      -0.3980458497424031,
      0.17093784359573846,
      -0.2529717978253592,
      0.33556339017947057,
      -0.20348608225162199,
      -0.3942793251879889,
      0.6041216825046477,
      0.3925746008014549
    ],
    [
      -0.21864284556160254,
      -0.18099925905377773,
      0.1654363780116873,
      0.02975298881538558,
      0.23781490468745659,
      0.6408413755745924,
      -0.05377672003269257,
      -0.19971121932755218
    ],
    [
      -0.5073766985588051,
      -0.12337244252843764,
      -0.09557218944402504,
      0.7328346115806429,
      -0.09459448952139712,
      0.18539784794343614,
      -0.046392018705910164,
      0.2205048278364082
    ],
    [
      0.8313754580390531,
      -0.11972129635089299,
      -0.146562150290797,
      0.3477083894775449,
      0.1458515214925879,
      0.5991194397989992,
      0.1580200226035009,
      -0.2640721507431411
    ],
    [
      0.18272037399426808,
      0.4040451322698077,
      0.2975723697433377,
      0.13899528291092958,
      0.38404241813176415,
      0.3567374593866927,
      0.459013018157165,
      0.19754393765194975
    ]
  ],
  "b3": [
    -0.03796329012217277,
    0.04776829948316515,
    0.00494227530100529,
    -0.0301430742620559,
    0.006800557233568389,
    -0.019099956433570407,
    -0.02127861318515532,
    0.09230793037254069
  ],
  "W4": [
    [
      1.2460675575173954e-06,
      0.24333630188495792,
      0.5548369998723538,
      -0.5377311540924551,
      0.008030752051011041,
      -0.04115896718636374,
      -0.08833463505218773,
      0.7440250400088669,
      0.10251204008537443,
      0.0326511089772001,
      -0.6448574600400622,
      0.35455359123564417,
      0.3329090785807331,
      1.0531100010677839,
      -0.12834784424553392,
      0.10608770767778049,
      0.08580116438315179,
      0.7731042209554543,
      -0.1892916754060553,
      0.12722264385813928,
      0.2781633980256458,
      0.1879683141942821,
      -0.20808513205411813,
      -0.15147692406029512,
      0.3352272266848077,
      -0.5406969497657788,
      -0.02168225320556415,
      -0.33434718726089474,
      0.5472052960680978,
      -0.8460909457715178,
      -0.27674606213195707,
      0.25784120740289523
    ],
    [
      0.7096181100505116,
      -0.10051150583237478,
      -0.24484451079232658,
      0.8303116022856419,
      -0.7453871684150642,
      -1.091858867315458,
      0.22714293429735988,
      -0.3078949891964581,
      -0.4500389439413654,
      0.3433274463551865,
      0.19023663642939617,
      -0.3623218097140556,
      -0.6038966095617928,
      0.46068282238356023,
      0.29813978689204934,
      -0.012574536881005573,
      0.8467524907140123,
      -0.4897995635272323,
      -0.6830734212420638,
      -0.48118161462111186,
      -0.09781313558676505,
      0.14335033048195753,
      -0.061368574517434694,
      0.26260603197435833,
      -0.6096288216663143,
      0.580954089486191,
      -0.028449902850107768,
      0.6084562733613081,
      0.21893092682753,
      0.300778422812748,
      0.27837169505323306,
      0.2333566015857237
    ],
    [
      0.0052141648360280665,
      0.5821832744552365,
      0.09257461096617862,
      0.12859215761785484,
      -0.06998238135696687,
      0.7031881941961771,
      -0.37187649873503525,
      0.8453981096486625,
      0.02709894589686848,
      -1.0433582297261077,
      -0.030722820606636798,
      -0.3920544836316751,
      0.4761003425564763,
      -0.29944363710743993,
      -0.24407135757714957,
      -0.9109727962581612,
      -0.21365650112704876,
      -1.1703506804969321,
      -0.7687616391777722,
      0.7495448454647172,
      0.3139458738630266,
      0.31052197781228047,
      -0.43876511029811205,
      -0.06195459011684862,
      0.08387979748141128,
      -0.6901312014610911,
      0.6401801200074099,
      0.48849472633022245,
      -0.07240266871023367,
      0.06352998424195551,
      0.24822636804373674,
      -1.0703135273013098
    ],
    [
      0.09886321760522052,
      -0.2954251231345272,
      -0.5388169643037665,
      -0.04916230129276974,
      0.9305951944711683,
      0.34890936224907354,
      -0.3645100414368808,
      0.2289776010394274,
      0.6499185810827655,
      0.47908285447844806,
      -0.05545512572394633,
      -0.25750412599252015,
      0.29516570376529794,
      0.1727761578856065,
      0.525174137961577,
      0.30648092010698186,
      0.3917089925666301,
      -0.3077251756335296,
      0.5186920939822837,
      0.3850398095774617,
      1.103323944410034,
      -0.30623127990420973,
      0.8251479022919027,
      0.10100271610479986,
      -0.3077376336511044,
      -0.07470886569581746,
      -0.20191153398343753,
      0.1658991874808358,
      0.21638838789923215,
      -0.40383252825271193,
      0.030785725963990256,
      1.0486666249780767
    ],
    [
      0.9568931888206592,
      0.3148638088838123,
      -0.03814965001378453,
      -0.07574131924538938,
      0.3569953235702688,
      -0.4515841489299514,
      -0.22995021021655854,
      -0.8666333897932669,
      0.15656239661013963,
      0.2827385788787578,
      -0.2954376282676049,
      0.8840854596052712,
      -0.7249993054484305,
      -0.7648015698710194,
      0.12878244672867997,
      0.46963123799889533,
      0.894766283408964,
      -0.2791449901359966,
      0.36690120351140054,
      0.08555263253769597,
      -0.049690252366547574,
      0.5769976032134434,
      0.2948668818672136,
      -0.8100260513335096,
      0.7272944985176762,
      0.7841235171349346,
      -0.39187153797248797,
      0.13535804096646464,
      0.217101525449966,
      0.10792588503148112,
      -0.14226647654634758,
      -0.3024655854871304
    ],
    [
      -0.07851781790406873,
      0.6319054075455666,
      0.29459878956289604,
      -0.2321014138390269,
      0.34650720072386376,
      -1.3495001780824187,
      0.5658992920656026,
      -0.7787649053389991,
      -0.2193633634846394,
      -0.7657557641552547,
      -0.5071258438371032,
      0.580170393602237,
      -0.26804110262302233,
      0.15550807667458227,
      0.00631843940686465,
      0.21043236569029514,
      0.06283739521655328,
      -0.671090107474588,
      0.4948845669781457,
      -0.2052027045303819,
      -0.7109162044583743,
      -0.24262414006436986,
      0.6998052445329122,
      0.3656316297318278,
      -0.20726628859487178,
      -0.07113637286228995,
      -0.045780087326639685,
      0.9909618377522942,
      0.15176813663231606,
      0.20172695181300704,
      0.42761618937503254,
      0.13610513102878785
    ],
    [
      -0.13353514462260488,
      -0.06343769582712948,
      0.01982887839345029,
      0.004473659769309091,
      0.3674829336309,
      -0.06103453788359977,
      0.39368242706602297,
      -0.13087068095424498,
      -0.026417909679703262,
      -0.9873960953840054,
      0.42492907414810627,
      0.19681696078991007,
      0.5001819414370077,
      -1.4672130639359424,
      1.1162602318348014,
      -0.10419765026228774,
      0.590445638302902,
      -0.5607235835053244,
      0.38315725520646676,
      -0.33829765143785134,
      -0.1504949844423621,
      0.8837582377421096,
      -0.15363563395591723,
      0.16398934821288674,
      0.3900694242353031,
      0.38346732386603954,
      0.18261339397116683,
      0.1267160908114408,
      1.1454916122167744,
      0.021978787145781997,
      0.11140141032377228,
      0.5897470103177006
    ],
    [
      0.3577110459202933,
      0.5560670778735728,
      0.2840268138193931,
      -0.6053907579889047,
      0.887009987518685,
      -0.7037234422247894,
      0.1760751086400853,
      -0.3777879344798291,
      0.00946852539286656,
      0.14533718873950482,
      0.1645051915575861,
      0.24380931555015867,
      0.7515912793287938,
      0.21546915399359465,
      -0.20115642481932416,
      0.6124956200468094,
      0.5670089137846416,
      -0.5640849235833039,
      0.19529214783250035,
      0.6470900284876507,
      -0.09784551812705491,
      0.7639740518391948,
      -0.019403790279675415,
      0.1524296300616948,
      -0.07530637985220759,
      -0.13543371873081203,
      -0.6023321879581164,
      -0.6612023842497134,
      0.8453678168796855,
      -0.3799755320972574,
      -0.4783973332644098,
      -1.054605467495662
    ]
  ],
  "b4": [
    -0.028155881280908516,
    0.03995759882434678,
    0.05669318388851954,
    0.08134275676443697,
    0.10647656195136411,
    -0.08580480497598919,
    0.003500846244456513,
    -0.07720270283475092,
    -0.08447527033561092,
    0.15062457840226162,
    -0.05133743819597908,
    0.09859537822356636,
    -0.00633553944616949,
    -0.015043824389799804,
    0.026548781668649116,
    0.014154918120293831,
    -0.007786360607073673,
    -0.05721866672394594,
    -0.14062097758499795,
    0.09055635345518727,
    0.08078368426079083,
    -0.04062505725590848,
    -0.05929435582704972,
    0.09287289659766088,
    -0.03561877648516937,
    0.1155713991990813,
    0.0912042411575115,
    -0.060052174799241104,
    -0.041753868776884355,
    0.0975141171571472,
    0.006824384396530239,
    0.11999090627610756
  ],
  "W5": [
    [
      -0.31332359407633176,
      -0.32755729597468575,
      0.5000675553570977,
      0.25244114164915443,
      -0.23862950576218753,
      0.31708321339774154,
      0.45389180030467247,
      -0.12223129016122385
    ],
    [
      -0.5803319916541458,
      0.5173458266915058,
      -0.3831344992719992,
      -0.4515549579951163,
      0.3260225635090129,
      0.6660435387629966,
      0.29020222012952923,
      0.19934385024312642
    ],
    [
      0.17172848620251768,
      0.19605788206231686,
      0.16833667758164905,
      0.04246178894400638,
      0.04286247389092456,
      0.007800939749586209,
      -0.2192294536864585,
      -0.04489616040649037
    ],
    [
      -0.21868165315917262,
      -0.16501594749541548,
      -0.19217358619752342,
      -0.22453071368839891,
      0.03691874355812448,
      0.42263686006040657,
      0.44797655326900226,
      -0.360576851976926
    ],
    [
      -0.23672029686096238,
      0.16537778381811255,
      -0.30373023620486644,
      -0.11039889302155628,
      0.18137080670381545,
      -0.34042562300361023,
      -0.01223690965249362,
      -0.2753608659370727
    ],
    [
      -0.26687614373368646,
      -0.0961173098087157,
      -0.371121077932392,
      -0.010417605724905207,
      -0.10174471956443167,
      0.00011014145262275182,
      0.18521997060841594,
      0.11774757554459193
    ],
    [
      0.07339907276383312,
      -0.08180623070959431,
      0.11999021379641546,
      0.1194096074722541,
      0.09153646409157552,
      0.09884748842840246,
      -0.26438932247943336,
      -0.1487152961443438
    ],
    [
      -0.3090502776755284,
      0.37602422659189405,
      -0.2395666502028106,
      -0.18496962076484597,
      -0.1526153902320979,
      0.1986541301070302,
      -0.00969284163119466,
      0.2789376018156486
    ],
    [
      -0.18988365012361283,
      -0.033562174359936366,
      -0.24851888062945582,
      0.47857943085021126,
      -0.30411494022131363,
      -0.006603438694229105,
      0.14187559394573226,
      0.15873445619650256
    ],
    [
      -0.48967108305251655,
      0.07941327004527066,
      0.27628739618813947,
      0.07427955713591278,
      -0.02879458031932463,
      0.503229744167966,
      0.031294069867080616,
      -0.5149378331139608
    ],
    [
      0.12382793762876032,
      0.5569074705054056,
      -0.11859764721114395,
      0.41102360273336164,
      0.46266438970103113,
      -0.000774248332279277,
      0.19043469104097285,
      0.27579903443835463
    ],
    [
      -0.07766955151104936,
      -0.08069362838380595,
      -0.19722661700765798,
      -0.30391749724607353,
      -0.1216206636005139,
      -0.33562830154970746,
      -0.038441431209369915,
      -0.12597480154284948
    ],
    [
      0.0633302928667454,
      -0.47136653234328524,
      0.15426682759955712,
      0.174324716547368,
      -0.6855398992120189,
      0.2848435944216372,
      0.23529488026158263,
      -0.2590476915179556
    ],
    [
      0.4269419985578878,
      0.07645070313811266,
      -0.20492640962628184,
      -0.04698500825941577,
      0.1094436464981755,
      0.009996025059078468,
      0.10737066170613051,
      -0.20120679982808823
    ],
    [
      0.08121168602321684,
      -0.3249471331212862,
      0.04350337086326138,
      -0.2877838055246855,
      -0.1751836137593046,
      0.40187731702513946,
      0.2084033657441445,
      0.18856285244470286
    ],
    [
      -0.27905229378841406,
      -0.12563830057834685,
      0.25383484240119775,
      -0.012796172307969872,
      0.5528678018453439,
      0.025197278493852573,
      0.013892220770391223,
      -0.01845906307456036
    ],
    [
      0.005698404714183999,
      -0.1289756755631453,
      0.22511244379174394,
      0.1680234649479693,
      -0.12726091973655906,
      -0.5133435800126658,
      -0.3687690057340776,
      0.21169818612992874
    ],
    [
      -0.2613193864215951,
      -0.558632693367467,
      0.049996177312384295,
      0.5803276423877577,
      -0.021355724010588356,
      0.1765208085438626,
      -0.024991088633068564,
      -0.004512610321194596
    ],
    [
      0.2458409082895898,
      -0.12281574337847331,
      -0.007680926976069126,
      0.03172389332421725,
      -0.12187626632001498,
      0.1878321876703132,
      -0.10572826330741944,
      -0.14348675551295229
    ],
    [
      -0.19129013583422874,
      -0.4649406045678613,
      -0.034337807873053135,
      -0.09493512885880119,
      0.6254700256788503,
      -0.1602386263142948,
      -0.33783716298765276,
      -0.07645710008833516
    ],
    [
      0.16159352754945086,
      -0.022119042867314243,
      0.06661231025343428,
      -0.4368208014288853,
      -0.21405632882130685,
      -0.19672314434753183,
      0.04420678003558966,
      -0.025659254599498485
    ],
    [
      0.05114272771699667,
      0.14262286825428205,
      0.1249958832788951,
      0.030176085173564595,
      -0.0011952392467516608,
      -0.4857235087557661,
      -0.11457756682105233,
      0.02496667779714275
    ],
    [
      -0.27172464921155653,
      0.0739734946654062,
      0.31971099142201825,
      0.25643133216605657,
      0.024883621049073372,
      0.3207398174678867,
      -0.0012545793377508531,
      -0.031168830374121645
    ],
    [
      -0.12808638253368884,
      -0.0853943345309708,
      0.03503009081710965,
      0.020339911493168324,
      0.13550379408548094,
      0.11463794773284962,
      0.04209941045641269,
      0.2985004385786794
    ],
    [
      0.21876970755461134,
      -0.4276335588083009,
      -0.6846270566486646,
      0.17360253700544698,
      -0.347935866863838,
      -0.12685338768417517,
      -0.32084177998640495,
      -0.39340559788881463
    ],
    [
      0.17988343855397212,
      0.19387995568714744,
      -0.14433221592719236,
      -0.7616392646446124,
      -0.06723194687128463,
      0.10645039015224547,
      -0.28191045693100253,
      0.09254482936437597
    ],
    [
      0.02773983055942369,
      0.24771469676211752,
      0.22901351720190408,
      -0.29208143332942416,
      0.13036720544440603,
      0.09724727381971482,
      0.07550294371762145,
      -0.23940255276085823
    ],
    [
      -0.06590368096876309,
      -0.17940903144249887,
      -0.00866037203628212,
      0.38314240842495234,
      -0.28127430858287295,
      -0.34582474363067905,
      0.28855006134791766,
      -0.018423811043147727
    ],
    [
      -0.14345219635085113,
      0.24389408257129447,
      -0.05603749954229716,
      0.41005416736302336,
      0.1925012443138098,
      -0.04078374569792689,
      0.48590879195878633,
      -0.11339859666952756
    ],
    [
      0.3694949023929799,
      0.057297224653808466,
      0.3087553471322931,
      0.43970296800412706,
      0.09104464959262443,
      -0.11430743351294097,
      0.07805490648451807,
      -0.2112018368735521
    ],
    [
      0.5513557512589035,
      0.06861613605255222,
      0.015601319156218107,
      0.006954783787546178,
      -0.286630715769791,
      -0.17719418489540878,
      0.23609704424493694,
      -0.1458056908983528
    ],
    [
      -0.24128962189605824,
      0.2015897941358811,
      0.29455665530712055,
      0.13203765108838553,
      0.2264907271750382,
      -0.04212387865128211,
      -0.4222610970582354,
      0.41049153890675183
    ]
  ],
  "b5": [
    -0.003396365528644907,
    0.07294655450992991,
    0.07266072863244152,
    -0.06908299435505914,
    0.04788076605484712,
    0.001889455084282378,
    -0.05147612600658267,
    -0.00335074075507395
  ]
}